<?xml version="1.0" encoding="UTF-8"?>
<BIF VERSION="0.3"  xmlns="http://www.cs.ubc.ca/labs/lci/fopi/ve/XMLBIFv0_3"
	xmlns:xsi="http://www.w3.org/2001/XMLSchema-instance"
	xsi:schemaLocation="http://www.cs.ubc.ca/labs/lci/fopi/ve/XMLBIFv0_3 http://www.cs.ubc.ca/labs/lci/fopi/ve/XMLBIFv0_3/XMLBIFv0_3.xsd">
<NETWORK>
<NAME>Untitled</NAME>

<VARIABLE TYPE="nature">
	<NAME>Culpable</NAME>
	<OUTCOME>T</OUTCOME>
	<OUTCOME>F</OUTCOME>
	<PROPERTY>position = (7454.87060546875, 5343.37451171875)</PROPERTY>
</VARIABLE>

<VARIABLE TYPE="nature">
	<NAME>Motivo</NAME>
	<OUTCOME>T</OUTCOME>
	<OUTCOME>F</OUTCOME>
	<PROPERTY>position = (7453.9013671875, 5212.5869140625)</PROPERTY>
</VARIABLE>

<VARIABLE TYPE="nature">
	<NAME>No-Coartada</NAME>
	<OUTCOME>T</OUTCOME>
	<OUTCOME>F</OUTCOME>
	<PROPERTY>position = (7811.7548828125, 5207.55908203125)</PROPERTY>
</VARIABLE>

<VARIABLE TYPE="nature">
	<NAME>ManoCubierta</NAME>
	<OUTCOME>T</OUTCOME>
	<OUTCOME>F</OUTCOME>
	<PROPERTY>position = (7075.42724609375, 5116.4931640625)</PROPERTY>
</VARIABLE>

<VARIABLE TYPE="nature">
	<NAME>EscenaLimpiada</NAME>
	<OUTCOME>T</OUTCOME>
	<OUTCOME>F</OUTCOME>
	<PROPERTY>position = (7230.14697265625, 5115.52587890625)</PROPERTY>
</VARIABLE>

<VARIABLE TYPE="nature">
	<NAME>Huellas</NAME>
	<OUTCOME>T</OUTCOME>
	<OUTCOME>F</OUTCOME>
	<PROPERTY>position = (7150.40966796875, 5217.8076171875)</PROPERTY>
</VARIABLE>

<VARIABLE TYPE="nature">
	<NAME>Nerviosismo</NAME>
	<OUTCOME>T</OUTCOME>
	<OUTCOME>F</OUTCOME>
	<PROPERTY>position = (7720.41357421875, 5112.625)</PROPERTY>
</VARIABLE>

<VARIABLE TYPE="nature">
	<NAME>DetallesContrastables</NAME>
	<OUTCOME>T</OUTCOME>
	<OUTCOME>F</OUTCOME>
	<PROPERTY>position = (7891.572265625, 5115.52587890625)</PROPERTY>
</VARIABLE>

<VARIABLE TYPE="nature">
	<NAME>Deudas</NAME>
	<OUTCOME>T</OUTCOME>
	<OUTCOME>F</OUTCOME>
	<PROPERTY>position = (7535.71728515625, 5124.22900390625)</PROPERTY>
</VARIABLE>

<VARIABLE TYPE="nature">
	<NAME>Relación</NAME>
	<OUTCOME>T</OUTCOME>
	<OUTCOME>F</OUTCOME>
	<PROPERTY>position = (7371.328125, 5123.26171875)</PROPERTY>
</VARIABLE>

<DEFINITION>
	<FOR>Culpable</FOR>
	<GIVEN>Motivo</GIVEN>
	<GIVEN>No-Coartada</GIVEN>
	<GIVEN>Huellas</GIVEN>
	<TABLE>0.9 0.1 0.8 0.2 0.7 0.3 0.3 0.7 0.5 0.5 0.5 0.5 0.3 0.7 0.001 0.999</TABLE>
</DEFINITION>

<DEFINITION>
	<FOR>Motivo</FOR>
	<GIVEN>Deudas</GIVEN>
	<GIVEN>Relación</GIVEN>
	<TABLE>0.9 0.1 0.5 0.5 0.6 0.4 0.2 0.8</TABLE>
</DEFINITION>

<DEFINITION>
	<FOR>No-Coartada</FOR>
	<GIVEN>Nerviosismo</GIVEN>
	<GIVEN>DetallesContrastables</GIVEN>
	<TABLE>0.4 0.6 0.6 0.4 0.2 0.8 0.5 0.5</TABLE>
</DEFINITION>

<DEFINITION>
	<FOR>ManoCubierta</FOR>
	<TABLE>0.7 0.3</TABLE>
</DEFINITION>

<DEFINITION>
	<FOR>EscenaLimpiada</FOR>
	<TABLE>0.4 0.6</TABLE>
</DEFINITION>

<DEFINITION>
	<FOR>Huellas</FOR>
	<GIVEN>ManoCubierta</GIVEN>
	<GIVEN>EscenaLimpiada</GIVEN>
	<TABLE>0.1 0.9 0.2 0.8 0.2 0.8 0.9 0.1</TABLE>
</DEFINITION>

<DEFINITION>
	<FOR>Nerviosismo</FOR>
	<TABLE>0.1 0.9</TABLE>
</DEFINITION>

<DEFINITION>
	<FOR>DetallesContrastables</FOR>
	<TABLE>0.2 0.8</TABLE>
</DEFINITION>

<DEFINITION>
	<FOR>Deudas</FOR>
	<TABLE>0.8 0.2</TABLE>
</DEFINITION>

<DEFINITION>
	<FOR>Relación</FOR>
	<TABLE>0.1 0.9</TABLE>
</DEFINITION>
</NETWORK>
</BIF>
